svm_type epsilon_svr
kernel_type rbf
gamma 0.00390625
nr_class 2
total_sv 130
rho -0.0606333
probA 0.187932
SV
-0.5 1:0.364269 2:0.267735 3:0.443099 4:0.486683 5:-0.871472 6:1 7:0.443155 8:0.318078 9:0.46247 10:0.520581 11:-0.852843 12:0.535113 13:0.433875 14:0.304348 15:0.394673 16:0.525424 17:-0.892112 18:0.149085 
0.5 1:0.443155 2:0.318078 3:0.46247 4:0.520581 5:-0.852843 6:0.535113 7:0.433875 8:0.304348 9:0.394673 10:0.525424 11:-0.892112 12:0.0141198 13:0.401392 14:0.244851 15:-0.263923 16:-0.128329 17:-0.824027 18:-0.730962 
0.5 1:0.433875 2:0.304348 3:0.394673 4:0.525424 5:-0.892112 6:0.0141198 7:0.401392 8:0.244851 9:-0.263923 10:-0.128329 11:-0.824027 12:-0.762561 13:-0.466357 14:-0.235698 15:-0.176755 16:-0.394673 17:-0.727981 18:-0.73187 
-0.5 1:0.401392 2:0.244851 3:-0.263923 4:-0.128329 5:-0.824027 6:-0.762561 7:-0.466357 8:-0.235698 9:-0.176755 10:-0.394673 11:-0.727981 12:-0.763363 13:-0.169374 14:0.107551 15:0.186441 16:-0.0895884 17:-0.683988 18:-0.244036 
0.5 1:-0.466357 2:-0.235698 3:-0.176755 4:-0.394673 5:-0.727981 6:-0.763363 7:-0.169374 8:0.107551 9:0.186441 10:-0.0895884 11:-0.683988 12:-0.332828 13:0.0765661 14:-0.0800915 15:-0.414044 16:-0.288136 17:-0.967156 18:-0.767063 
-0.5 1:-0.169374 2:0.107551 3:0.186441 4:-0.0895884 5:-0.683988 6:-0.332828 7:0.0765661 8:-0.0800915 9:-0.414044 10:-0.288136 11:-0.967156 12:-0.794422 13:-0.201856 14:-0.148741 15:-0.1477 16:-0.48184 17:-0.689892 18:-0.501792 
-0.425773047054951 1:0.0765661 2:-0.0800915 3:-0.414044 4:-0.288136 5:-0.967156 6:-0.794422 7:-0.201856 8:-0.148741 9:-0.1477 10:-0.48184 11:-0.689892 12:-0.560309 13:-0.280742 14:-0.125858 15:-0.244552 16:-0.191283 17:-0.679809 18:-0.668296 
-0.5 1:-0.201856 2:-0.148741 3:-0.1477 4:-0.48184 5:-0.689892 6:-0.560309 7:-0.280742 8:-0.125858 9:-0.244552 10:-0.191283 11:-0.679809 12:-0.707256 13:-0.169374 14:-0.286041 15:-0.297821 16:-0.234867 17:-0.792349 18:-0.851587 
0.5 1:-0.280742 2:-0.125858 3:-0.244552 4:-0.191283 5:-0.679809 6:-0.707256 7:-0.169374 8:-0.286041 9:-0.297821 10:-0.234867 11:-0.792349 12:-0.869019 13:-0.276102 14:-0.322654 15:-0.360775 16:-0.249395 17:-0.798677 18:0.764392 
-0.5 1:-0.169374 2:-0.286041 3:-0.297821 4:-0.234867 5:-0.792349 6:-0.869019 7:-0.276102 8:-0.322654 9:-0.360775 10:-0.249395 11:-0.798677 12:0.557155 13:-0.559165 14:-0.322654 15:-0.171913 16:-0.428571 17:-0.790278 18:1 
0.5 1:-0.559165 2:-0.322654 3:-0.171913 4:-0.428571 5:-0.790278 6:0.76509 7:-0.24826 8:-0.318078 9:-0.472155 10:-0.384988 11:-0.836566 12:0.276907 13:-0.563805 14:-0.524027 15:-0.467312 16:-0.48184 17:-0.906511 18:-0.0434532 
-0.5 1:-0.563805 2:-0.524027 3:-0.467312 4:-0.48184 5:-0.906511 6:-0.155804 7:-0.443155 8:-0.455378 9:-0.312349 10:-0.35109 11:-0.837485 12:-0.776688 13:-0.341067 14:-0.276888 15:-0.341404 16:-0.249395 17:-0.762852 18:-0.756445 
0.5 1:-0.341067 2:-0.276888 3:-0.341404 4:-0.249395 5:-0.762852 6:-0.785051 7:-0.443155 8:-0.473684 9:-0.578692 10:-0.433414 11:-0.843082 12:-0.466606 13:-0.489559 14:-0.597254 15:-0.506053 16:-0.491525 17:-0.92095 18:-0.834102 
-0.5 1:-0.443155 2:-0.473684 3:-0.578692 4:-0.433414 5:-0.843082 6:-0.466606 7:-0.489559 8:-0.597254 9:-0.506053 10:-0.491525 11:-0.92095 12:-0.853588 13:-0.466357 14:-0.469108 15:-0.37046 16:-0.355932 17:-0.910212 18:-0.553862 
0.5 1:-0.489559 2:-0.597254 3:-0.506053 4:-0.491525 5:-0.92095 6:-0.853588 7:-0.466357 8:-0.469108 9:-0.37046 10:-0.355932 11:-0.910212 12:-0.606263 13:-0.406032 14:-0.382151 15:-0.728814 16:-0.66586 17:-0.700491 18:-0.798039 
-0.5 1:-0.466357 2:-0.469108 3:-0.37046 4:-0.355932 5:-0.910212 6:-0.606263 7:-0.406032 8:-0.382151 9:-0.728814 10:-0.66586 11:-0.700491 12:-0.82176 13:-0.633411 14:-0.588101 15:-0.530266 16:-0.66586 17:-0.694659 18:-0.907993 
0.5 1:-0.406032 2:-0.382151 3:-0.728814 4:-0.66586 5:-0.700491 6:-0.82176 7:-0.633411 8:-0.588101 9:-0.530266 10:-0.66586 11:-0.694659 12:-0.9188 13:-0.568445 14:-0.7254 15:-0.995157 16:-0.859564 17:-0.783664 18:0.456196 
-0.5 1:-0.633411 2:-0.588101 3:-0.530266 4:-0.66586 5:-0.694659 6:-0.9188 7:-0.568445 8:-0.7254 9:-0.995157 10:-0.859564 11:-0.783664 12:0.285158 13:-0.976798 14:-0.89016 15:-0.840194 16:-0.903148 17:-0.824793 18:0.721339 
0.5 1:-0.568445 2:-0.7254 3:-0.995157 4:-0.859564 5:-0.783664 6:0.285158 7:-0.976798 8:-0.89016 9:-0.840194 10:-0.903148 11:-0.824793 12:0.51916 13:-0.800464 14:-0.867277 15:-0.985472 16:-0.903148 17:-0.882781 18:0.190889 
-0.5 1:-0.976798 2:-0.89016 3:-0.840194 4:-0.903148 5:-0.824793 6:0.51916 7:-0.800464 8:-0.867277 9:-0.985472 10:-0.903148 11:-0.882781 12:0.0510131 13:-1 14:-0.93135 15:-0.854722 16:-0.88862 17:-0.897833 18:-0.223557 
0.5 1:-0.800464 2:-0.867277 3:-0.985472 4:-0.903148 5:-0.882781 6:0.0510131 7:-1 8:-0.93135 9:-0.854722 10:-0.88862 11:-0.897833 12:-0.314754 13:-0.902552 14:-1 15:-0.912833 16:-0.854722 17:-0.930416 18:-0.880398 
-0.5 1:-1 2:-0.93135 3:-0.854722 4:-0.88862 5:-0.897833 6:-0.314754 7:-0.902552 8:-1 9:-0.912833 10:-0.854722 11:-0.930416 12:-0.894446 13:-0.823666 14:-0.75286 15:-0.743341 16:-0.7046 17:-0.783871 18:-0.850375 
0.5 1:-0.902552 2:-1 3:-0.912833 4:-0.854722 5:-0.930416 6:-0.894446 7:-0.823666 8:-0.75286 9:-0.743341 10:-0.7046 11:-0.783871 12:-0.867949 13:-0.703016 14:-0.803204 15:-0.874092 16:-0.767554 17:-0.892356 18:-0.536562 
0.449063702427043 1:-0.823666 2:-0.75286 3:-0.743341 4:-0.7046 5:-0.783871 6:-0.867949 7:-0.703016 8:-0.803204 9:-0.874092 10:-0.767554 11:-0.892356 12:-0.590995 13:-1 14:-0.789474 15:-0.723971 16:-0.912833 17:-0.846148 18:-0.91296 
-0.5 1:-1 2:-0.789474 3:-0.723971 4:-0.912833 5:-0.846148 6:-0.923183 7:-0.707657 8:-0.661327 9:-0.59322 10:-0.607748 11:-0.78068 12:-0.668627 13:-0.587007 14:-0.688787 15:-0.588378 16:-0.559322 17:-0.791464 18:-0.850382 
-0.5 1:-0.707657 2:-0.661327 3:-0.59322 4:-0.607748 5:-0.78068 6:-0.668627 7:-0.587007 8:-0.688787 9:-0.588378 10:-0.559322 11:-0.791464 12:-0.867955 13:-0.522042 14:-0.610984 15:-0.622276 16:-0.48184 17:-0.736898 18:-0.957866 
0.5 1:-0.587007 2:-0.688787 3:-0.588378 4:-0.559322 5:-0.791464 6:-0.867955 7:-0.522042 8:-0.610984 9:-0.622276 10:-0.48184 11:-0.736898 12:-0.962815 13:-0.587007 14:-0.73913 15:-0.670702 16:-0.569007 17:-0.893358 18:0.31953 
-0.5 1:-0.563805 2:-0.377574 3:-0.322034 4:-0.433414 5:-0.471486 6:0.438087 7:-0.37819 8:-0.359268 9:-0.360775 10:-0.268765 11:-0.635689 12:-0.00714357 13:-0.37819 14:-0.505721 15:-0.360775 16:-0.331719 17:-0.804811 18:-0.26527 
0.5 1:-0.37819 2:-0.359268 3:-0.360775 4:-0.268765 5:-0.635689 6:-0.00714357 7:-0.37819 8:-0.505721 9:-0.360775 10:-0.331719 11:-0.804811 12:-0.351567 13:-0.354988 14:-0.501144 15:-0.917676 16:-0.811138 17:-0.645975 18:-0.968898 
-0.5 1:-0.37819 2:-0.505721 3:-0.360775 4:-0.331719 5:-0.804811 6:-0.351567 7:-0.354988 8:-0.501144 9:-0.917676 10:-0.811138 11:-0.645975 12:-0.972551 13:-0.87471 14:-0.812357 15:-0.772397 16:-0.786925 17:-0.746373 18:-0.917186 
0.5 1:-0.354988 2:-0.501144 3:-0.917676 4:-0.811138 5:-0.645975 6:-0.972551 7:-0.87471 8:-0.812357 9:-0.772397 10:-0.786925 11:-0.746373 12:-0.926913 13:-0.791183 14:-0.922197 15:-1 16:-1 17:-0.787481 18:-0.649408 
0.5 1:-0.87471 2:-0.812357 3:-0.772397 4:-0.786925 5:-0.746373 6:-0.926913 7:-0.791183 8:-0.922197 9:-1 10:-1 11:-0.787481 12:-0.690587 13:-0.939675 14:-0.93135 15:-0.840194 16:-0.854722 17:-0.824906 18:-0.982763 
-0.5 1:-0.791183 2:-0.922197 3:-1 4:-1 5:-0.787481 6:-0.690587 7:-0.939675 8:-0.93135 9:-0.840194 10:-0.854722 11:-0.824906 12:-0.984788 13:-0.800464 14:-0.441648 15:-0.288136 16:-0.733656 17:-0.403122 18:-0.632449 
0.5 1:-0.939675 2:-0.93135 3:-0.840194 4:-0.854722 5:-0.824906 6:-0.984788 7:-0.800464 8:-0.441648 9:-0.288136 10:-0.733656 11:-0.403122 12:-0.67562 13:-0.243619 14:-0.199085 15:-0.375303 16:-0.249395 17:-0.289369 18:-0.859021 
0.5 1:-0.800464 2:-0.441648 3:-0.288136 4:-0.733656 5:-0.403122 6:-0.67562 7:-0.243619 8:-0.199085 9:-0.375303 10:-0.249395 11:-0.289369 12:-0.875579 13:-0.290023 14:-0.226545 15:-0.234867 16:-0.326877 17:-0.379432 18:-0.943465 
-0.5 1:-0.243619 2:-0.199085 3:-0.375303 4:-0.249395 5:-0.289369 6:-0.875579 7:-0.290023 8:-0.226545 9:-0.234867 10:-0.326877 11:-0.379432 12:-0.950105 13:-0.0162413 14:0.0343249 15:0.142857 16:-0.0411622 17:-0.181698 18:0.324064 
-0.5 1:-0.290023 2:-0.226545 3:-0.234867 4:-0.326877 5:-0.379432 6:-0.950105 7:-0.0162413 8:0.0343249 9:0.142857 10:-0.0411622 11:-0.181698 12:0.168546 13:0.0858469 14:-0.0572082 15:-0.0460048 16:-0.0217918 17:-0.321692 18:0.597336 
-0.5 1:-0.0162413 2:0.0343249 3:0.142857 4:-0.0411622 5:-0.181698 6:0.168546 7:0.0858469 8:-0.0572082 9:-0.0460048 10:-0.0217918 11:-0.321692 12:0.409721 13:-0.331787 14:-0.418764 15:-0.472155 16:-0.346247 17:-0.582538 18:0.0639892 
-0.5 1:0.0858469 2:-0.0572082 3:-0.0460048 4:-0.0217918 5:-0.321692 6:0.409721 7:-0.331787 8:-0.418764 9:-0.472155 10:-0.346247 11:-0.582538 12:-0.0609814 13:-0.406032 14:-0.478261 15:-0.554479 16:-0.433414 17:-0.765526 18:-0.31839 
0.5 1:-0.331787 2:-0.418764 3:-0.472155 4:-0.346247 5:-0.582538 6:-0.0609814 7:-0.406032 8:-0.478261 9:-0.554479 10:-0.433414 11:-0.765526 12:-0.398449 13:-0.610209 14:-0.656751 15:-0.622276 16:-0.535109 17:-0.845035 18:-1 
0.5 1:-0.406032 2:-0.478261 3:-0.554479 4:-0.433414 5:-0.765526 6:-0.398449 7:-0.610209 8:-0.656751 9:-0.622276 10:-0.535109 11:-0.845035 12:-1 13:-0.531323 14:-0.524027 15:-0.46247 16:-0.428571 17:-0.794019 18:-0.931752 
-0.5 1:-0.610209 2:-0.656751 3:-0.622276 4:-0.535109 5:-0.845035 6:-1 7:-0.531323 8:-0.524027 9:-0.46247 10:-0.428571 11:-0.794019 12:-0.939768 13:-0.489559 14:-0.386728 15:-0.25908 16:-0.501211 17:-0.542699 18:-0.651751 
0.5 1:-0.531323 2:-0.524027 3:-0.46247 4:-0.428571 5:-0.794019 6:-0.939768 7:-0.489559 8:-0.386728 9:-0.25908 10:-0.501211 11:-0.542699 12:-0.692655 13:-0.354988 14:-0.290618 15:-0.409201 16:-0.263923 17:-0.705553 18:-0.988483 
0.5 1:-0.354988 2:-0.290618 3:-0.409201 4:-0.263923 5:-0.705553 6:-0.989836 7:-0.341067 8:-0.368421 9:-0.288136 10:-0.312349 11:-0.772609 12:-0.680897 13:-0.215777 14:-0.125858 15:-0.181598 16:-0.152542 17:-0.238859 18:-0.845398 
-0.5 1:-0.341067 2:-0.368421 3:-0.288136 4:-0.312349 5:-0.772609 6:-0.680897 7:-0.215777 8:-0.125858 9:-0.181598 10:-0.152542 11:-0.238859 12:-0.863556 13:-0.197216 14:-0.135011 15:-0.031477 16:-0.0799031 17:-0.356731 18:-0.911662 
0.5 1:-0.215777 2:-0.125858 3:-0.181598 4:-0.152542 5:-0.238859 6:-0.863556 7:-0.197216 8:-0.135011 9:-0.031477 10:-0.0799031 11:-0.356731 12:-0.922038 13:-0.104408 14:-0.235698 15:-0.162228 16:-0.0411622 17:-0.688003 18:0.296894 
-0.5 1:-0.197216 2:-0.135011 3:-0.031477 4:-0.0799031 5:-0.356731 6:-0.922038 7:-0.104408 8:-0.235698 9:-0.162228 10:-0.0411622 11:-0.688003 12:0.144567 13:-0.192575 14:-0.0892449 15:0.00242131 16:-0.0460048 17:-0.393648 18:0.577306 
-0.5 1:-0.099768 2:-0.263158 3:-0.273608 4:-0.133172 5:-0.583913 6:-0.0857543 7:-0.285383 8:-0.372998 9:-0.263923 10:-0.205811 11:-0.832892 12:-0.410547 13:-0.243619 14:-0.331808 15:-0.297821 16:-0.181598 17:-0.777313 18:-0.993938 
0.5 1:-0.285383 2:-0.372998 3:-0.263923 4:-0.205811 5:-0.832892 6:-0.410547 7:-0.243619 8:-0.331808 9:-0.297821 10:-0.181598 11:-0.777313 12:-0.99465 13:-0.294664 14:-0.331808 15:-0.365617 16:-0.263923 17:-0.760473 18:-0.934281 
0.5 1:-0.294664 2:-0.331808 3:-0.365617 4:-0.263923 5:-0.760473 6:-0.942 7:-0.290023 8:-0.368421 9:-0.220339 10:-0.200969 11:-0.790279 12:-0.691187 13:-0.225058 14:-0.350114 15:-0.254237 16:-0.133172 17:-0.82263 18:-0.979184 
-0.5 1:-0.225058 2:-0.350114 3:-0.254237 4:-0.133172 5:-0.82263 6:-0.981629 7:-0.257541 8:-0.226545 9:-0.108959 10:-0.138015 11:-0.54164 12:-0.6712 13:-0.109049 14:-0.157895 15:-0.0460048 16:-0.0750605 17:-0.564204 18:-0.822762 
-0.5 1:-0.257541 2:-0.226545 3:-0.108959 4:-0.138015 5:-0.54164 6:-0.6712 7:-0.109049 8:-0.157895 9:-0.0460048 10:-0.0750605 11:-0.564204 12:-0.84358 13:-0.0951276 14:-0.212815 15:-0.123487 16:-0.0363196 17:-0.780547 18:-0.893967 
-0.5 1:-0.109049 2:-0.157895 3:-0.0460048 4:-0.0750605 5:-0.564204 6:-0.84358 7:-0.0951276 8:-0.212815 9:-0.123487 10:-0.0363196 11:-0.780547 12:-0.906421 13:-0.113689 14:-0.240275 15:-0.239709 16:-0.094431 17:-0.815708 18:0.268489 
0.5 1:-0.0951276 2:-0.212815 3:-0.123487 4:-0.0363196 5:-0.780547 6:-0.906421 7:-0.113689 8:-0.240275 9:-0.239709 10:-0.094431 11:-0.815708 12:0.119499 13:-0.290023 14:-0.405034 15:-0.326877 16:-0.263923 17:-0.860342 18:0.533859 
0.5 1:-0.290023 2:-0.405034 3:-0.326877 4:-0.263923 5:-0.860342 6:0.3537 7:-0.280742 8:-0.212815 9:-0.118644 10:-0.138015 11:-0.628911 12:-0.0947081 13:-0.12761 14:-0.217391 15:-0.1477 16:-0.0605327 17:-0.749885 18:-0.33392 
0.5 1:-0.12761 2:-0.217391 3:-0.1477 4:-0.0605327 5:-0.749885 6:-0.412154 7:-0.0533643 8:0.263158 9:0.128329 10:0.0992736 11:0.0898591 12:-0.960477 13:0.12761 14:0.0114416 15:0.094431 16:0.142857 17:-0.500471 18:-0.900403 
-0.5 1:-0.0533643 2:0.263158 3:0.128329 4:0.0992736 5:0.0898591 6:-0.960477 7:0.12761 8:0.0114416 9:0.094431 10:0.142857 11:-0.500471 12:-0.912101 13:0.0858469 14:0.102975 15:0.191283 16:0.191283 17:-0.444571 18:-0.616996 
0.5 1:0.12761 2:0.0114416 3:0.094431 4:0.142857 5:-0.500471 6:-0.912101 7:0.0858469 8:0.102975 9:0.191283 10:0.191283 11:-0.444571 12:-0.661981 13:0.12297 14:-0.0434783 15:-0.0169492 16:0.094431 17:-0.682873 18:-0.953476 
0.5 1:0.0858469 2:0.102975 3:0.191283 4:0.191283 5:-0.444571 6:-0.661981 7:0.12297 8:-0.0434783 9:-0.0169492 10:0.094431 11:-0.682873 12:-0.958941 13:0.109049 14:0.244851 15:0.210654 16:0.254237 17:-0.334467 18:-0.594383 
0.5 1:0.12297 2:-0.0434783 3:-0.0169492 4:0.094431 5:-0.682873 6:-0.958941 7:0.109049 8:0.244851 9:0.210654 10:0.254237 11:-0.334467 12:-0.642024 13:0.2529 14:0.423341 15:0.539952 16:0.297821 17:0.738611 18:-0.76062 
-0.5 1:0.109049 2:0.244851 3:0.210654 4:0.254237 5:-0.334467 6:-0.642024 7:0.2529 8:0.423341 9:0.539952 10:0.297821 11:0.738611 12:-0.788737 13:0.364269 14:0.789474 15:0.66586 16:0.476998 17:1 18:-0.821582 
-0.5 1:0.396752 2:0.299771 3:0.336562 4:0.375303 5:-0.193629 6:0.135293 7:0.225058 8:0.180778 9:0.25908 10:0.288136 11:-0.534111 12:0.358496 13:0.187935 14:0.112128 15:0.254237 16:0.210654 17:-0.502913 18:0.0435015 
0.5 1:0.271462 2:0.107551 3:0.0799031 4:0.200969 5:-0.596195 6:-0.399551 7:0.0858469 8:0.00228833 9:0.0363196 10:0.113801 11:-0.676184 12:-0.937293 13:0.025522 14:0.00228833 15:0.108959 16:0.171913 17:-0.708 18:-0.870847 
-0.5 1:0.0858469 2:0.00228833 3:0.0363196 4:0.113801 5:-0.676184 6:-0.937293 7:0.025522 8:0.00228833 9:0.108959 10:0.171913 11:-0.708 12:-0.886016 13:0.0951276 14:0.185355 15:0.322034 16:0.196126 17:-0.528883 18:-0.580267 
0.5 1:0.025522 2:0.00228833 3:0.108959 4:0.171913 5:-0.708 6:-0.886016 7:0.0951276 8:0.185355 9:0.322034 10:0.196126 11:-0.528883 12:-0.629567 13:0.234339 14:0.139588 15:0.234867 16:0.336562 17:-0.676294 18:-0.915033 
-0.5 1:0.0951276 2:0.185355 3:0.322034 4:0.196126 5:-0.528883 6:-0.629567 7:0.234339 8:0.139588 9:0.234867 10:0.336562 11:-0.676294 12:-0.925012 13:0.234339 14:0.148741 15:0.322034 16:0.360775 17:-0.681598 18:-0.559034 
-0.5 1:0.234339 2:0.139588 3:0.234867 4:0.336562 5:-0.676294 6:-0.925012 7:0.234339 8:0.148741 9:0.322034 10:0.360775 11:-0.681598 12:-0.610828 13:0.331787 14:0.318078 15:0.0847458 16:0.215496 17:-0.397887 18:-0.737202 
-0.5 1:0.234339 2:0.148741 3:0.322034 4:0.360775 5:-0.681598 6:-0.610828 7:0.331787 8:0.318078 9:0.0847458 10:0.215496 11:-0.397887 12:-0.768069 13:-0.00696056 14:-0.167048 15:-0.457627 16:-0.389831 17:-0.418085 18:-0.831722 
0.5 1:-0.00696056 2:-0.167048 3:-0.457627 4:-0.389831 5:-0.418085 6:-0.851487 7:-0.489559 8:-0.620137 9:-0.549637 10:-0.569007 11:-0.706117 12:0.0993385 13:-0.480278 14:-0.551487 15:-0.520581 16:-0.394673 17:-0.727278 18:0.495202 
-0.5 1:-0.489559 2:-0.620137 3:-0.549637 4:-0.569007 5:-0.706117 6:0.0993385 7:-0.480278 8:-0.551487 9:-0.520581 10:-0.394673 11:-0.727278 12:0.319583 13:-0.512761 14:-0.423341 15:-0.292978 16:-0.510896 17:-0.607556 18:0.0248636 
0.5 1:-0.480278 2:-0.551487 3:-0.520581 4:-0.394673 5:-0.727278 6:0.319583 7:-0.512761 8:-0.423341 9:-0.292978 10:-0.510896 11:-0.607556 12:-0.0955116 13:-0.345708 14:-0.400458 15:-0.409201 16:-0.312349 17:-0.714494 18:-0.337288 
0.5 1:-0.512761 2:-0.423341 3:-0.292978 4:-0.510896 5:-0.607556 6:-0.0955116 7:-0.345708 8:-0.400458 9:-0.409201 10:-0.312349 11:-0.714494 12:-0.415127 13:-0.433875 14:-0.226545 15:-0.162228 16:-0.341404 17:-0.505289 18:-0.918361 
-0.5 1:-0.345708 2:-0.400458 3:-0.409201 4:-0.312349 5:-0.714494 6:-0.415127 7:-0.433875 8:-0.226545 9:-0.162228 10:-0.341404 11:-0.505289 12:-0.92795 13:-0.192575 14:0.0800915 15:-0.00242131 16:-0.0653753 17:-0.00936862 18:-0.852045 
0.5 1:-0.433875 2:-0.226545 3:-0.162228 4:-0.341404 5:-0.505289 6:-0.92795 7:-0.192575 8:0.0800915 9:-0.00242131 10:-0.0653753 11:-0.00936862 12:-0.869423 13:-0.155452 14:-0.249428 15:-0.230024 16:-0.220339 17:-0.545295 18:-0.58126 
-0.5 1:-0.243619 2:0.0480549 3:0.215496 4:-0.118644 5:-0.127172 6:-0.89668 7:0.062645 8:0.185355 9:0.191283 10:0.210654 11:-0.211741 12:-0.590505 13:0.109049 14:0.0709382 15:0.200969 16:0.181598 17:-0.505807 18:-0.710218 
-0.5 1:0.062645 2:0.185355 3:0.191283 4:0.210654 5:-0.211741 6:-0.590505 7:0.109049 8:0.0709382 9:0.200969 10:0.181598 11:-0.505807 12:-0.744254 13:0.118329 14:0.0251716 15:0.0217918 16:0.0653753 17:-0.618565 18:-0.813283 
0.5 1:0.109049 2:0.0709382 3:0.200969 4:0.181598 5:-0.505807 6:-0.744254 7:0.118329 8:0.0251716 9:0.0217918 10:0.0653753 11:-0.618565 12:-0.835214 13:0.0858469 14:-0.0114416 15:-0.176755 16:-0.108959 17:-0.569047 18:0.231181 
-0.5 1:0.118329 2:0.0251716 3:0.0217918 4:0.0653753 5:-0.618565 6:-0.835214 7:0.0858469 8:-0.0114416 9:-0.176755 10:-0.108959 11:-0.569047 12:0.086573 13:-0.238979 14:0.020595 15:0.171913 16:-0.215496 17:-0.365344 18:0.495362 
0.5 1:0.0858469 2:-0.0114416 3:-0.176755 4:-0.108959 5:-0.569047 6:0.086573 7:-0.238979 8:0.020595 9:0.171913 10:-0.215496 11:-0.365344 12:0.319725 13:0.132251 14:0.102975 15:0.0799031 16:0.196126 17:-0.466753 18:0.0291691 
0.5 1:-0.238979 2:0.020595 3:0.171913 4:-0.215496 5:-0.365344 6:0.319725 7:0.132251 8:0.102975 9:0.0799031 10:0.196126 11:-0.466753 12:-0.0917117 13:-0.00696056 14:0.217391 15:0.225182 16:0.0266344 17:-0.278873 18:-0.318056 
0.5 1:-0.00696056 2:0.217391 3:0.225182 4:0.0266344 5:-0.278873 6:-0.398154 7:0.220418 8:0.670481 9:0.88862 10:0.380145 11:0.606158 12:-0.869603 13:0.888631 14:0.87643 15:0.830508 16:0.951574 17:0.676873 18:-0.790939 
-0.5 1:0.856148 2:0.73913 3:0.830508 4:0.912833 5:-0.264623 6:-0.84325 7:0.791183 8:0.661327 9:0.772397 10:0.806295 11:-0.522293 12:-0.545912 13:0.735499 14:0.652174 15:0.723971 16:0.820823 17:-0.403577 18:-0.659456 
-0.5 1:0.791183 2:0.661327 3:0.772397 4:0.806295 5:-0.522293 6:-0.545912 7:0.735499 8:0.652174 9:0.723971 10:0.820823 11:-0.403577 12:-0.699455 13:0.596288 14:0.446224 15:0.414044 16:0.506053 17:-0.226228 18:-0.776961 
0.5 1:0.735499 2:0.652174 3:0.723971 4:0.820823 5:-0.403577 6:-0.699455 7:0.596288 8:0.446224 9:0.414044 10:0.506053 11:-0.226228 12:-0.803158 13:0.271462 14:0.244851 15:0.152542 16:0.292978 17:-0.460385 18:0.235102 
0.5 1:0.596288 2:0.446224 3:0.414044 4:0.506053 5:-0.226228 6:-0.803158 7:0.271462 8:0.244851 9:0.152542 10:0.292978 11:-0.460385 12:0.0900334 13:0.150812 14:0.0983982 15:0.239709 16:0.273608 17:-0.656401 18:0.498909 
-0.157460229541181 1:0.132251 2:0.331808 3:0.443099 4:0.268765 5:-0.428114 6:-0.0723894 7:0.387471 8:0.359268 9:0.341404 10:0.438257 11:-0.452791 12:-0.378054 13:0.313225 14:0.363844 15:0.389831 16:0.46247 17:-0.454123 18:-0.818013 
0.5 1:0.313225 2:0.363844 3:0.389831 4:0.46247 5:-0.454123 6:-0.839388 7:0.354988 8:0.208238 9:0.283293 10:0.341404 11:-0.696888 12:-0.791033 13:0.299304 14:0.194508 15:0.25908 16:0.263923 17:-0.599412 18:-0.500267 
-0.5 1:0.354988 2:0.208238 3:0.283293 4:0.341404 5:-0.696888 6:-0.791033 7:0.299304 8:0.194508 9:0.25908 10:0.263923 11:-0.599412 12:-0.558963 13:0.192575 14:0.189931 15:0.35109 16:0.322034 17:-0.712042 18:-0.791377 
-0.5 1:0.299304 2:0.194508 3:0.25908 4:0.263923 5:-0.599412 6:-0.558963 7:0.192575 8:0.189931 9:0.35109 10:0.322034 11:-0.712042 12:-0.81588 13:0.285383 14:0.148741 15:0.123487 16:0.225182 17:-0.596061 18:-0.47115 
0.5 1:0.192575 2:0.189931 3:0.35109 4:0.322034 5:-0.712042 6:-0.81588 7:0.285383 8:0.148741 9:0.123487 10:0.225182 11:-0.596061 12:-0.533266 13:0.099768 14:-0.00686499 15:-0.0363196 16:-0.0653753 17:-0.652925 18:-0.64984 
0.5 1:0.099768 2:-0.00686499 3:-0.0363196 4:-0.0653753 5:-0.652925 6:-0.690968 7:-0.0394432 8:-0.0892449 9:0.0750605 10:0.0799031 11:-0.784753 12:-0.788457 13:0.0301624 14:-0.0663616 15:0.104116 16:0.138015 17:-0.732774 18:0.236372 
-0.5 1:-0.0394432 2:-0.0892449 3:0.0750605 4:0.0799031 5:-0.784753 6:-0.788457 7:0.0301624 8:-0.0663616 9:0.104116 10:0.138015 11:-0.732774 12:0.0911541 13:0.0533643 14:0.0938215 15:0.191283 16:0.191283 17:-0.479016 18:0.499866 
0.5 1:0.0533643 2:0.0938215 3:0.191283 4:0.191283 5:-0.479016 6:0.3237 7:0.146172 8:0.00228833 9:0.0653753 10:0.176755 11:-0.73455 12:-0.0702184 13:0.0765661 14:-0.0617849 15:0.0605327 16:0.191283 17:-0.829345 18:-0.287518 
0.5 1:0.0301624 2:0.162471 3:0.263923 4:0.171913 5:-0.462839 6:-0.817252 7:0.234339 8:0.135011 9:0.317191 10:0.336562 11:-0.570844 12:-0.76775 13:0.266821 14:0.286041 15:0.37046 16:0.409201 17:-0.471413 18:-0.475859 
0.5 1:0.266821 2:0.286041 3:0.37046 4:0.409201 5:-0.471413 6:-0.537422 7:0.331787 8:0.574371 9:0.520581 10:0.48184 11:-0.045314 12:-0.784745 13:0.447796 14:0.368421 15:0.544794 16:0.564165 17:-0.532189 18:-0.440021 
0.5 1:0.331787 2:0.574371 3:0.520581 4:0.48184 5:-0.045314 6:-0.784745 7:0.447796 8:0.368421 9:0.544794 10:0.564165 11:-0.532189 12:-0.505793 13:0.679814 14:1 15:0.946731 16:0.733656 17:0.844564 18:-0.598958 
-0.4204032280223688 1:0.447796 2:0.368421 3:0.544794 4:0.564165 5:-0.532189 6:-0.505793 7:0.679814 8:1 9:0.946731 10:0.733656 11:0.844564 12:-0.646062 13:0.842227 14:0.858124 15:1 16:1 17:0.242454 18:-0.705862 
0.1585306213724027 1:0.842227 2:0.858124 3:1 4:1 5:0.242454 6:-0.74041 7:1 8:0.839817 9:0.859564 10:0.927361 11:-0.0753682 12:0.120369 13:0.74942 14:0.606407 15:0.728814 16:0.77724 17:-0.45544 18:0.5233 
0.5 1:0.670534 2:0.505721 3:0.680387 4:0.738499 5:-0.640837 6:-0.782123 7:0.642691 8:0.597254 9:0.699758 10:0.767554 11:-0.663095 12:-0.732896 13:0.656613 14:0.519451 15:0.66586 16:0.748184 17:-0.726432 18:-0.441777 
0.5 1:0.656613 2:0.519451 3:0.66586 4:0.748184 5:-0.726432 6:-0.507343 7:0.633411 8:0.578947 9:0.743341 10:0.782082 11:-0.575389 12:-0.7486 13:0.661253 14:0.537757 15:0.636804 16:0.753027 17:-0.727671 18:-0.40809 
-0.5 1:0.633411 2:0.578947 3:0.743341 4:0.782082 5:-0.575389 6:-0.7486 7:0.661253 8:0.537757 9:0.636804 10:0.753027 11:-0.727671 12:-0.477613 13:0.610209 14:0.505721 15:0.699758 16:0.772397 17:-0.801099 18:-0.562519 
0.5 1:0.661253 2:0.537757 3:0.636804 4:0.753027 5:-0.727671 6:-0.477613 7:0.610209 8:0.505721 9:0.699758 10:0.772397 11:-0.801099 12:-0.613903 13:0.679814 14:0.505721 15:0.215496 16:0.307506 17:-0.303811 18:-0.687237 
-0.5 1:0.679814 2:0.505721 3:0.215496 4:0.307506 5:-0.303811 6:-0.723972 7:0.215777 8:0.148741 9:0.273608 10:0.307506 11:-0.730876 12:0.126742 13:0.257541 14:0.102975 15:0.176755 16:0.322034 17:-0.871022 18:0.523212 
0.4632858764983763 1:0.0162413 2:-0.0663616 3:0.00242131 4:0.113801 5:-0.82343 6:-0.772825 7:0.00232019 8:-0.0983982 9:0.0508475 10:0.0847458 11:-0.828851 12:-0.722707 13:0.0301624 14:-0.125858 15:-0.00726392 16:0.118644 17:-0.862986 18:-0.435897 
0.5 1:0.00232019 2:-0.0983982 3:0.0508475 4:0.0847458 5:-0.828851 6:-0.722707 7:0.0301624 8:-0.125858 9:-0.00726392 10:0.118644 11:-0.862986 12:-0.502153 13:-0.0208817 14:-0.0892449 15:0.0799031 16:0.0653753 17:-0.799189 18:-0.702432 
-0.5 1:-0.0208817 2:-0.0892449 3:0.0799031 4:0.0653753 5:-0.799189 6:-0.737383 7:0.206497 8:0.135011 9:0.191283 10:0.297821 11:-0.561065 12:-0.466397 13:0.12297 14:0.180778 15:0.234867 16:0.268765 17:-0.607013 18:-0.546272 
0.5 1:0.12297 2:0.180778 3:0.234867 4:0.268765 5:-0.607013 6:-0.599564 7:0.174014 8:0.0251716 9:0.094431 10:0.239709 11:-0.784579 12:-0.712825 13:0.0858469 14:-0.020595 15:0.142857 16:0.196126 17:-0.854731 18:0.278565 
0.4327563043206788 1:0.174014 2:0.0251716 3:0.094431 4:0.239709 5:-0.784579 6:-0.712825 7:0.0858469 8:-0.020595 9:0.142857 10:0.196126 11:-0.854731 12:0.128392 13:0.146172 14:0.102975 15:0.254237 16:0.263923 17:-0.655245 18:0.525926 
-0.5 1:0.285383 2:0.130435 3:0.273608 4:0.365617 5:-0.838311 6:-0.324144 7:0.257541 8:0.102975 9:0.254237 10:0.331719 11:-0.793805 12:-0.756423 13:0.220418 14:0.180778 15:0.307506 16:0.365617 17:-0.654798 18:-0.666172 
-0.5 1:0.280742 2:0.112128 3:0.108959 4:0.249395 5:-0.765692 6:-0.493799 7:0.0858469 8:-0.0297483 9:0.108959 10:0.220339 11:-0.923272 12:-0.726175 13:0.109049 14:-0.0434783 15:0.094431 16:0.234867 17:-0.951601 18:-0.387029 
-0.5 1:0.0672854 2:-0.0434783 3:0.133172 4:0.171913 5:-0.857574 6:-0.485376 7:0.136891 8:0.0389016 9:0.152542 10:0.25908 11:-0.7811 12:-0.714559 13:0.146172 14:0.0160183 15:0.113801 16:0.239709 17:-0.889784 18:-0.378675 
-0.5 1:0.136891 2:0.0389016 3:0.152542 4:0.25908 5:-0.7811 6:-0.714559 7:0.146172 8:0.0160183 9:0.113801 10:0.239709 11:-0.889784 12:-0.451653 13:0.0951276 14:-0.0526316 15:0.00726392 16:0.152542 17:-0.869137 18:-0.53283 
-0.5 1:-0.164733 2:-0.327231 3:-0.191283 4:-0.0750605 5:-0.997694 6:-0.323677 7:-0.187935 8:-0.308924 9:-0.181598 10:-0.0508475 11:-0.992884 12:-0.746307 13:-0.136891 14:-0.295195 15:-0.196126 16:-0.0508475 17:-0.964654 18:-0.654953 
-0.5 1:-0.187935 2:-0.308924 3:-0.181598 4:-0.0508475 5:-0.992884 6:-0.746307 7:-0.136891 8:-0.295195 9:-0.196126 10:-0.0508475 11:-0.964654 12:-0.69548 13:-0.178654 14:-0.331808 15:-0.27845 16:-0.133172 17:-0.95522 18:-0.420676 
0.5 1:-0.322506 2:-0.478261 3:-0.331719 4:-0.200969 5:-0.982505 6:-0.748155 7:-0.327146 8:-0.487414 9:-0.360775 10:-0.244552 11:-0.985993 12:-0.698592 13:-0.341067 14:-0.464531 15:-0.389831 16:-0.244552 17:-0.95874 18:-0.427443 
-0.5 1:-0.238979 2:-0.377574 3:-0.27845 4:-0.186441 5:-0.928645 6:-0.711657 7:-0.280742 8:-0.318078 9:-0.196126 10:-0.152542 11:-0.845134 12:0.0972437 13:-0.192575 14:-0.281465 15:-0.128329 16:-0.0799031 17:-0.869945 18:0.485229 
-0.5 1:-0.192575 2:-0.281465 3:-0.128329 4:-0.0799031 5:-0.869945 6:0.310782 7:-0.141531 8:-0.304348 9:-0.220339 10:-0.0895884 11:-0.91675 12:-0.0528331 13:-0.234339 14:-0.354691 15:-0.230024 16:-0.094431 17:-0.976403 18:-0.244896 
0.5 1:-0.317865 2:-0.377574 3:-0.244552 4:-0.176755 5:-0.955909 6:-0.496766 7:-0.262181 8:-0.363844 9:-0.244552 10:-0.128329 11:-0.919944 12:-0.719204 13:-0.266821 14:-0.363844 15:-0.249395 16:-0.176755 17:-0.897505 18:-0.39266 
0.5 1:-0.0858469 2:-0.130435 3:-0.0363196 4:0.00242131 5:-0.722094 6:0.0945054 7:-0.00696056 8:-0.144165 9:-0.0411622 10:-0.0266344 11:-0.638982 12:0.305919 13:0.025522 14:-0.0343249 15:0.00726392 16:0.152542 17:-0.595301 18:0.0729095 
-0.5 1:0.215777 2:0.171625 3:0.162228 4:0.273608 5:-0.700025 6:-0.690647 7:0.12761 8:0.0160183 9:0.157385 10:0.210654 11:-0.734502 12:-0.489475 13:0.099768 14:0.0617849 15:0.176755 16:0.210654 17:-0.774435 18:-0.670785 
0.5 1:0.0904872 2:-0.0480549 3:0.0121065 4:0.142857 5:-0.872772 6:0.0930163 7:0.0440835 8:-0.00686499 9:0.0702179 10:0.186441 11:-0.760894 12:0.303832 13:0.0487239 14:-0.102975 15:0.0411622 16:0.0702179 17:-0.85538 18:0.0734705 
-0.5 1:0.0440835 2:-0.00686499 3:0.0702179 4:0.186441 5:-0.760894 6:0.303832 7:0.0487239 8:-0.102975 9:0.0411622 10:0.0702179 11:-0.85538 12:-0.0526137 13:0.0672854 14:-0.00686499 15:0.157385 16:0.176755 17:-0.705497 18:-0.229464 
-0.5 1:0.0487239 2:-0.102975 3:0.0411622 4:0.0702179 5:-0.85538 6:-0.0526137 7:0.0672854 8:-0.00686499 9:0.157385 10:0.176755 11:-0.705497 12:-0.319967 13:0.113689 14:-0.0434783 15:0.0460048 16:0.196126 17:-0.795032 18:-0.696071 
-0.5 1:0.113689 2:-0.0434783 3:0.0460048 4:0.196126 5:-0.795032 6:-0.731769 7:0.00696056 8:-0.148741 9:-0.0895884 10:0.0169492 11:-0.791286 12:-0.687389 13:-0.0904872 14:-0.185355 15:-0.0508475 16:0.0605327 17:-0.940595 18:-0.418904 
0.5 1:-0.0904872 2:-0.185355 3:-0.0508475 4:0.0605327 5:-0.940595 6:-0.487157 7:-0.0487239 8:-0.212815 9:-0.200969 10:-0.0556901 11:-0.893189 12:-0.708484 13:-0.243619 14:-0.322654 15:-0.230024 16:-0.123487 17:-0.960327 18:-0.390155 
-0.5 1:-0.0951276 2:-0.226545 3:-0.0799031 4:0.0121065 5:-0.927602 6:-0.696793 7:-0.0765661 8:-0.180778 9:-0.104116 10:0.0266344 11:-0.9428 12:0.0891232 13:-0.136891 14:-0.203661 15:-0.094431 16:-0.00242131 17:-0.951671 18:0.471145 
0.5 1:-0.0765661 2:-0.180778 3:-0.104116 4:0.0266344 5:-0.9428 6:0.0891232 7:-0.136891 8:-0.203661 9:-0.094431 10:-0.00242131 11:-0.951671 12:0.298352 13:0.0301624 14:-0.102975 15:-0.254237 16:-0.157385 17:-0.737265 18:0.0668977 
-0.5 1:-0.136891 2:-0.203661 3:-0.094431 4:-0.00242131 5:-0.951671 6:0.298352 7:0.0301624 8:-0.102975 9:-0.254237 10:-0.157385 11:-0.737265 12:-0.0584145 13:-0.294664 14:-0.217391 15:-0.157385 16:-0.220339 17:-0.835296 18:-0.231111 
0.5 1:-0.220418 2:-0.336384 3:-0.302663 4:-0.239709 5:-0.868074 6:-0.732784 7:-0.322506 8:-0.363844 9:-0.268765 10:-0.196126 11:-0.969835 12:-0.688064 13:-0.2529 14:-0.414188 15:-0.312349 16:-0.191283 17:-0.955841 18:-0.422603 
-0.5 1:-0.201856 2:-0.336384 3:-0.234867 4:-0.157385 5:-0.955574 6:-0.46363 7:-0.220418 8:-0.318078 9:-0.196126 10:-0.0895884 11:-0.957152 12:-0.588333 13:-0.192575 14:-0.354691 15:-0.244552 16:-0.142857 17:-0.979674 18:-0.656538 
